digraph Tree {
node [shape=box] ;
0 [label="X[0] <= 1.1\nentropy = 0.9462\nsamples = 623\nvalue = [396, 227]"] ;
1 [label="X[1] <= 1.6821\nentropy = 0.8454\nsamples = 242\nvalue = [66, 176]"] ;
0 -> 1 [labeldistance=2.5, labelangle=45, headlabel="True"] ;
2 [label="X[1] <= 1.3477\nentropy = 0.7466\nsamples = 221\nvalue = [47, 174]"] ;
1 -> 2 ;
3 [label="X[1] <= 1.2641\nentropy = 0.6476\nsamples = 163\nvalue = [27, 136]"] ;
2 -> 3 ;
4 [label="X[1] <= 1.1881\nentropy = 0.8905\nsamples = 78\nvalue = [24, 54]"] ;
3 -> 4 ;
5 [label="X[1] <= 1.0589\nentropy = 0.4587\nsamples = 31\nvalue = [3, 28]"] ;
4 -> 5 ;
6 [label="X[1] <= 1.0402\nentropy = 0.5746\nsamples = 22\nvalue = [3, 19]"] ;
5 -> 6 ;
7 [label="X[1] <= 0.991\nentropy = 0.4537\nsamples = 21\nvalue = [2, 19]"] ;
6 -> 7 ;
8 [label="entropy = 0.0\nsamples = 8\nvalue = [0, 8]"] ;
7 -> 8 ;
9 [label="X[0] <= 0.3333\nentropy = 0.6194\nsamples = 13\nvalue = [2, 11]"] ;
7 -> 9 ;
10 [label="X[0] <= 0.2333\nentropy = 1.0\nsamples = 2\nvalue = [1, 1]"] ;
9 -> 10 ;
11 [label="entropy = 0.0\nsamples = 1\nvalue = [0, 1]"] ;
10 -> 11 ;
12 [label="entropy = 0.0\nsamples = 1\nvalue = [1, 0]"] ;
10 -> 12 ;
13 [label="X[0] <= 0.5\nentropy = 0.4395\nsamples = 11\nvalue = [1, 10]"] ;
9 -> 13 ;
14 [label="entropy = 0.0\nsamples = 4\nvalue = [0, 4]"] ;
13 -> 14 ;
15 [label="X[0] <= 0.5667\nentropy = 0.5917\nsamples = 7\nvalue = [1, 6]"] ;
13 -> 15 ;
16 [label="entropy = 0.9183\nsamples = 3\nvalue = [1, 2]"] ;
15 -> 16 ;
17 [label="entropy = 0.0\nsamples = 4\nvalue = [0, 4]"] ;
15 -> 17 ;
18 [label="entropy = 0.0\nsamples = 1\nvalue = [1, 0]"] ;
6 -> 18 ;
19 [label="entropy = 0.0\nsamples = 9\nvalue = [0, 9]"] ;
5 -> 19 ;
20 [label="X[0] <= 0.2333\nentropy = 0.9918\nsamples = 47\nvalue = [21, 26]"] ;
4 -> 20 ;
21 [label="X[1] <= 1.1967\nentropy = 0.65\nsamples = 12\nvalue = [2, 10]"] ;
20 -> 21 ;
22 [label="X[1] <= 1.1941\nentropy = 0.971\nsamples = 5\nvalue = [2, 3]"] ;
21 -> 22 ;
23 [label="entropy = 0.0\nsamples = 2\nvalue = [0, 2]"] ;
22 -> 23 ;
24 [label="X[0] <= 0.1667\nentropy = 0.9183\nsamples = 3\nvalue = [2, 1]"] ;
22 -> 24 ;
25 [label="entropy = 0.0\nsamples = 1\nvalue = [1, 0]"] ;
24 -> 25 ;
26 [label="X[1] <= 1.1954\nentropy = 1.0\nsamples = 2\nvalue = [1, 1]"] ;
24 -> 26 ;
27 [label="entropy = 0.0\nsamples = 1\nvalue = [1, 0]"] ;
26 -> 27 ;
28 [label="entropy = 0.0\nsamples = 1\nvalue = [0, 1]"] ;
26 -> 28 ;
29 [label="entropy = 0.0\nsamples = 7\nvalue = [0, 7]"] ;
21 -> 29 ;
30 [label="X[1] <= 1.1972\nentropy = 0.9947\nsamples = 35\nvalue = [19, 16]"] ;
20 -> 30 ;
31 [label="X[1] <= 1.1912\nentropy = 0.9587\nsamples = 21\nvalue = [8, 13]"] ;
30 -> 31 ;
32 [label="entropy = 0.0\nsamples = 2\nvalue = [2, 0]"] ;
31 -> 32 ;
33 [label="X[0] <= 0.4333\nentropy = 0.8997\nsamples = 19\nvalue = [6, 13]"] ;
31 -> 33 ;
34 [label="X[1] <= 1.1945\nentropy = 0.7219\nsamples = 15\nvalue = [3, 12]"] ;
33 -> 34 ;
35 [label="X[1] <= 1.1941\nentropy = 0.9183\nsamples = 9\nvalue = [3, 6]"] ;
34 -> 35 ;
36 [label="X[1] <= 1.1936\nentropy = 0.8113\nsamples = 8\nvalue = [2, 6]"] ;
35 -> 36 ;
37 [label="entropy = 0.0\nsamples = 2\nvalue = [0, 2]"] ;
36 -> 37 ;
38 [label="X[0] <= 0.3333\nentropy = 0.9183\nsamples = 6\nvalue = [2, 4]"] ;
36 -> 38 ;
39 [label="entropy = 1.0\nsamples = 2\nvalue = [1, 1]"] ;
38 -> 39 ;
40 [label="entropy = 0.8113\nsamples = 4\nvalue = [1, 3]"] ;
38 -> 40 ;
41 [label="entropy = 0.0\nsamples = 1\nvalue = [1, 0]"] ;
35 -> 41 ;
42 [label="entropy = 0.0\nsamples = 6\nvalue = [0, 6]"] ;
34 -> 42 ;
43 [label="X[1] <= 1.1927\nentropy = 0.8113\nsamples = 4\nvalue = [3, 1]"] ;
33 -> 43 ;
44 [label="entropy = 0.0\nsamples = 1\nvalue = [0, 1]"] ;
43 -> 44 ;
45 [label="entropy = 0.0\nsamples = 3\nvalue = [3, 0]"] ;
43 -> 45 ;
46 [label="X[0] <= 0.6667\nentropy = 0.7496\nsamples = 14\nvalue = [11, 3]"] ;
30 -> 46 ;
47 [label="X[0] <= 0.4333\nentropy = 0.4138\nsamples = 12\nvalue = [11, 1]"] ;
46 -> 47 ;
48 [label="entropy = 0.0\nsamples = 8\nvalue = [8, 0]"] ;
47 -> 48 ;
49 [label="X[1] <= 1.2407\nentropy = 0.8113\nsamples = 4\nvalue = [3, 1]"] ;
47 -> 49 ;
50 [label="entropy = 0.0\nsamples = 3\nvalue = [3, 0]"] ;
49 -> 50 ;
51 [label="entropy = 0.0\nsamples = 1\nvalue = [0, 1]"] ;
49 -> 51 ;
52 [label="entropy = 0.0\nsamples = 2\nvalue = [0, 2]"] ;
46 -> 52 ;
53 [label="X[1] <= 1.3175\nentropy = 0.2203\nsamples = 85\nvalue = [3, 82]"] ;
3 -> 53 ;
54 [label="X[1] <= 1.3143\nentropy = 0.4855\nsamples = 19\nvalue = [2, 17]"] ;
53 -> 54 ;
55 [label="entropy = 0.0\nsamples = 8\nvalue = [0, 8]"] ;
54 -> 55 ;
56 [label="X[0] <= 0.3\nentropy = 0.684\nsamples = 11\nvalue = [2, 9]"] ;
54 -> 56 ;
57 [label="entropy = 0.0\nsamples = 3\nvalue = [0, 3]"] ;
56 -> 57 ;
58 [label="X[0] <= 0.6667\nentropy = 0.8113\nsamples = 8\nvalue = [2, 6]"] ;
56 -> 58 ;
59 [label="X[0] <= 0.3667\nentropy = 0.9183\nsamples = 6\nvalue = [2, 4]"] ;
58 -> 59 ;
60 [label="entropy = 1.0\nsamples = 2\nvalue = [1, 1]"] ;
59 -> 60 ;
61 [label="X[0] <= 0.5\nentropy = 0.8113\nsamples = 4\nvalue = [1, 3]"] ;
59 -> 61 ;
62 [label="entropy = 0.0\nsamples = 2\nvalue = [0, 2]"] ;
61 -> 62 ;
63 [label="entropy = 1.0\nsamples = 2\nvalue = [1, 1]"] ;
61 -> 63 ;
64 [label="entropy = 0.0\nsamples = 2\nvalue = [0, 2]"] ;
58 -> 64 ;
65 [label="X[0] <= 0.0333\nentropy = 0.1133\nsamples = 66\nvalue = [1, 65]"] ;
53 -> 65 ;
66 [label="X[1] <= 1.3344\nentropy = 1.0\nsamples = 2\nvalue = [1, 1]"] ;
65 -> 66 ;
67 [label="entropy = 0.0\nsamples = 1\nvalue = [1, 0]"] ;
66 -> 67 ;
68 [label="entropy = 0.0\nsamples = 1\nvalue = [0, 1]"] ;
66 -> 68 ;
69 [label="entropy = 0.0\nsamples = 64\nvalue = [0, 64]"] ;
65 -> 69 ;
70 [label="X[1] <= 1.3843\nentropy = 0.9294\nsamples = 58\nvalue = [20, 38]"] ;
2 -> 70 ;
71 [label="X[1] <= 1.3609\nentropy = 0.8113\nsamples = 8\nvalue = [6, 2]"] ;
70 -> 71 ;
72 [label="X[1] <= 1.3602\nentropy = 0.9183\nsamples = 3\nvalue = [1, 2]"] ;
71 -> 72 ;
73 [label="entropy = 0.0\nsamples = 1\nvalue = [1, 0]"] ;
72 -> 73 ;
74 [label="entropy = 0.0\nsamples = 2\nvalue = [0, 2]"] ;
72 -> 74 ;
75 [label="entropy = 0.0\nsamples = 5\nvalue = [5, 0]"] ;
71 -> 75 ;
76 [label="X[1] <= 1.6392\nentropy = 0.8555\nsamples = 50\nvalue = [14, 36]"] ;
70 -> 76 ;
77 [label="X[1] <= 1.5946\nentropy = 0.9103\nsamples = 43\nvalue = [14, 29]"] ;
76 -> 77 ;
78 [label="X[1] <= 1.5387\nentropy = 0.8004\nsamples = 37\nvalue = [9, 28]"] ;
77 -> 78 ;
79 [label="X[1] <= 1.5206\nentropy = 0.8571\nsamples = 32\nvalue = [9, 23]"] ;
78 -> 79 ;
80 [label="X[0] <= 0.1667\nentropy = 0.6769\nsamples = 28\nvalue = [5, 23]"] ;
79 -> 80 ;
81 [label="entropy = 0.0\nsamples = 5\nvalue = [0, 5]"] ;
80 -> 81 ;
82 [label="X[0] <= 0.2333\nentropy = 0.7554\nsamples = 23\nvalue = [5, 18]"] ;
80 -> 82 ;
83 [label="entropy = 0.0\nsamples = 1\nvalue = [1, 0]"] ;
82 -> 83 ;
84 [label="X[0] <= 0.8\nentropy = 0.684\nsamples = 22\nvalue = [4, 18]"] ;
82 -> 84 ;
85 [label="X[0] <= 0.5667\nentropy = 0.7871\nsamples = 17\nvalue = [4, 13]"] ;
84 -> 85 ;
86 [label="X[1] <= 1.4646\nentropy = 0.6962\nsamples = 16\nvalue = [3, 13]"] ;
85 -> 86 ;
87 [label="X[0] <= 0.4333\nentropy = 0.8454\nsamples = 11\nvalue = [3, 8]"] ;
86 -> 87 ;
88 [label="X[0] <= 0.3667\nentropy = 0.5436\nsamples = 8\nvalue = [1, 7]"] ;
87 -> 88 ;
89 [label="entropy = 0.8113\nsamples = 4\nvalue = [1, 3]"] ;
88 -> 89 ;
90 [label="entropy = 0.0\nsamples = 4\nvalue = [0, 4]"] ;
88 -> 90 ;
91 [label="X[0] <= 0.5\nentropy = 0.9183\nsamples = 3\nvalue = [2, 1]"] ;
87 -> 91 ;
92 [label="entropy = 0.0\nsamples = 2\nvalue = [2, 0]"] ;
91 -> 92 ;
93 [label="entropy = 0.0\nsamples = 1\nvalue = [0, 1]"] ;
91 -> 93 ;
94 [label="entropy = 0.0\nsamples = 5\nvalue = [0, 5]"] ;
86 -> 94 ;
95 [label="entropy = 0.0\nsamples = 1\nvalue = [1, 0]"] ;
85 -> 95 ;
96 [label="entropy = 0.0\nsamples = 5\nvalue = [0, 5]"] ;
84 -> 96 ;
97 [label="entropy = 0.0\nsamples = 4\nvalue = [4, 0]"] ;
79 -> 97 ;
98 [label="entropy = 0.0\nsamples = 5\nvalue = [0, 5]"] ;
78 -> 98 ;
99 [label="X[1] <= 1.6202\nentropy = 0.65\nsamples = 6\nvalue = [5, 1]"] ;
77 -> 99 ;
100 [label="X[0] <= 0.2667\nentropy = 0.9183\nsamples = 3\nvalue = [2, 1]"] ;
99 -> 100 ;
101 [label="entropy = 0.0\nsamples = 1\nvalue = [1, 0]"] ;
100 -> 101 ;
102 [label="X[0] <= 0.4333\nentropy = 1.0\nsamples = 2\nvalue = [1, 1]"] ;
100 -> 102 ;
103 [label="entropy = 0.0\nsamples = 1\nvalue = [0, 1]"] ;
102 -> 103 ;
104 [label="entropy = 0.0\nsamples = 1\nvalue = [1, 0]"] ;
102 -> 104 ;
105 [label="entropy = 0.0\nsamples = 3\nvalue = [3, 0]"] ;
99 -> 105 ;
106 [label="entropy = 0.0\nsamples = 7\nvalue = [0, 7]"] ;
76 -> 106 ;
107 [label="X[1] <= 1.822\nentropy = 0.4537\nsamples = 21\nvalue = [19, 2]"] ;
1 -> 107 ;
108 [label="X[1] <= 1.7833\nentropy = 0.684\nsamples = 11\nvalue = [9, 2]"] ;
107 -> 108 ;
109 [label="entropy = 0.0\nsamples = 8\nvalue = [8, 0]"] ;
108 -> 109 ;
110 [label="X[0] <= 1.0333\nentropy = 0.9183\nsamples = 3\nvalue = [1, 2]"] ;
108 -> 110 ;
111 [label="entropy = 0.0\nsamples = 2\nvalue = [0, 2]"] ;
110 -> 111 ;
112 [label="entropy = 0.0\nsamples = 1\nvalue = [1, 0]"] ;
110 -> 112 ;
113 [label="entropy = 0.0\nsamples = 10\nvalue = [10, 0]"] ;
107 -> 113 ;
114 [label="X[1] <= 1.1321\nentropy = 0.5679\nsamples = 381\nvalue = [330, 51]"] ;
0 -> 114 [labeldistance=2.5, labelangle=-45, headlabel="False"] ;
115 [label="X[1] <= 0.9895\nentropy = 0.7713\nsamples = 84\nvalue = [65, 19]"] ;
114 -> 115 ;
116 [label="X[0] <= 1.2333\nentropy = 0.2352\nsamples = 26\nvalue = [25, 1]"] ;
115 -> 116 ;
117 [label="X[1] <= 0.9417\nentropy = 1.0\nsamples = 2\nvalue = [1, 1]"] ;
116 -> 117 ;
118 [label="entropy = 0.0\nsamples = 1\nvalue = [0, 1]"] ;
117 -> 118 ;
119 [label="entropy = 0.0\nsamples = 1\nvalue = [1, 0]"] ;
117 -> 119 ;
120 [label="entropy = 0.0\nsamples = 24\nvalue = [24, 0]"] ;
116 -> 120 ;
121 [label="X[1] <= 0.9911\nentropy = 0.8936\nsamples = 58\nvalue = [40, 18]"] ;
115 -> 121 ;
122 [label="entropy = 0.0\nsamples = 2\nvalue = [0, 2]"] ;
121 -> 122 ;
123 [label="X[0] <= 1.3\nentropy = 0.8631\nsamples = 56\nvalue = [40, 16]"] ;
121 -> 123 ;
124 [label="entropy = 0.0\nsamples = 5\nvalue = [5, 0]"] ;
123 -> 124 ;
125 [label="X[1] <= 1.0587\nentropy = 0.8974\nsamples = 51\nvalue = [35, 16]"] ;
123 -> 125 ;
126 [label="X[0] <= 1.7667\nentropy = 0.8213\nsamples = 39\nvalue = [29, 10]"] ;
125 -> 126 ;
127 [label="X[1] <= 1.0149\nentropy = 0.874\nsamples = 34\nvalue = [24, 10]"] ;
126 -> 127 ;
128 [label="X[1] <= 0.9923\nentropy = 0.9294\nsamples = 29\nvalue = [19, 10]"] ;
127 -> 128 ;
129 [label="X[0] <= 1.4333\nentropy = 0.6723\nsamples = 17\nvalue = [14, 3]"] ;
128 -> 129 ;
130 [label="entropy = 0.0\nsamples = 5\nvalue = [5, 0]"] ;
129 -> 130 ;
131 [label="X[0] <= 1.6667\nentropy = 0.8113\nsamples = 12\nvalue = [9, 3]"] ;
129 -> 131 ;
132 [label="X[0] <= 1.5667\nentropy = 0.8813\nsamples = 10\nvalue = [7, 3]"] ;
131 -> 132 ;
133 [label="X[0] <= 1.5\nentropy = 0.8113\nsamples = 8\nvalue = [6, 2]"] ;
132 -> 133 ;
134 [label="entropy = 0.9183\nsamples = 6\nvalue = [4, 2]"] ;
133 -> 134 ;
135 [label="entropy = 0.0\nsamples = 2\nvalue = [2, 0]"] ;
133 -> 135 ;
136 [label="entropy = 1.0\nsamples = 2\nvalue = [1, 1]"] ;
132 -> 136 ;
137 [label="entropy = 0.0\nsamples = 2\nvalue = [2, 0]"] ;
131 -> 137 ;
138 [label="X[1] <= 0.9985\nentropy = 0.9799\nsamples = 12\nvalue = [5, 7]"] ;
128 -> 138 ;
139 [label="X[0] <= 1.4333\nentropy = 0.8631\nsamples = 7\nvalue = [2, 5]"] ;
138 -> 139 ;
140 [label="entropy = 0.0\nsamples = 1\nvalue = [1, 0]"] ;
139 -> 140 ;
141 [label="X[0] <= 1.6\nentropy = 0.65\nsamples = 6\nvalue = [1, 5]"] ;
139 -> 141 ;
142 [label="entropy = 0.0\nsamples = 3\nvalue = [0, 3]"] ;
141 -> 142 ;
143 [label="X[0] <= 1.7\nentropy = 0.9183\nsamples = 3\nvalue = [1, 2]"] ;
141 -> 143 ;
144 [label="entropy = 1.0\nsamples = 2\nvalue = [1, 1]"] ;
143 -> 144 ;
145 [label="entropy = 0.0\nsamples = 1\nvalue = [0, 1]"] ;
143 -> 145 ;
146 [label="X[0] <= 1.4667\nentropy = 0.971\nsamples = 5\nvalue = [3, 2]"] ;
138 -> 146 ;
147 [label="X[1] <= 1.0021\nentropy = 0.9183\nsamples = 3\nvalue = [1, 2]"] ;
146 -> 147 ;
148 [label="entropy = 0.0\nsamples = 1\nvalue = [0, 1]"] ;
147 -> 148 ;
149 [label="X[1] <= 1.0087\nentropy = 1.0\nsamples = 2\nvalue = [1, 1]"] ;
147 -> 149 ;
150 [label="entropy = 0.0\nsamples = 1\nvalue = [1, 0]"] ;
149 -> 150 ;
151 [label="entropy = 0.0\nsamples = 1\nvalue = [0, 1]"] ;
149 -> 151 ;
152 [label="entropy = 0.0\nsamples = 2\nvalue = [2, 0]"] ;
146 -> 152 ;
153 [label="entropy = 0.0\nsamples = 5\nvalue = [5, 0]"] ;
127 -> 153 ;
154 [label="entropy = 0.0\nsamples = 5\nvalue = [5, 0]"] ;
126 -> 154 ;
155 [label="X[0] <= 1.3667\nentropy = 1.0\nsamples = 12\nvalue = [6, 6]"] ;
125 -> 155 ;
156 [label="entropy = 0.0\nsamples = 2\nvalue = [0, 2]"] ;
155 -> 156 ;
157 [label="X[0] <= 1.9\nentropy = 0.971\nsamples = 10\nvalue = [6, 4]"] ;
155 -> 157 ;
158 [label="X[0] <= 1.7\nentropy = 0.9183\nsamples = 9\nvalue = [6, 3]"] ;
157 -> 158 ;
159 [label="X[0] <= 1.5667\nentropy = 0.9852\nsamples = 7\nvalue = [4, 3]"] ;
158 -> 159 ;
160 [label="X[1] <= 1.0983\nentropy = 0.9183\nsamples = 6\nvalue = [4, 2]"] ;
159 -> 160 ;
161 [label="X[1] <= 1.0896\nentropy = 1.0\nsamples = 4\nvalue = [2, 2]"] ;
160 -> 161 ;
162 [label="X[0] <= 1.4667\nentropy = 0.9183\nsamples = 3\nvalue = [2, 1]"] ;
161 -> 162 ;
163 [label="X[1] <= 1.0796\nentropy = 1.0\nsamples = 2\nvalue = [1, 1]"] ;
162 -> 163 ;
164 [label="entropy = 0.0\nsamples = 1\nvalue = [0, 1]"] ;
163 -> 164 ;
165 [label="entropy = 0.0\nsamples = 1\nvalue = [1, 0]"] ;
163 -> 165 ;
166 [label="entropy = 0.0\nsamples = 1\nvalue = [1, 0]"] ;
162 -> 166 ;
167 [label="entropy = 0.0\nsamples = 1\nvalue = [0, 1]"] ;
161 -> 167 ;
168 [label="entropy = 0.0\nsamples = 2\nvalue = [2, 0]"] ;
160 -> 168 ;
169 [label="entropy = 0.0\nsamples = 1\nvalue = [0, 1]"] ;
159 -> 169 ;
170 [label="entropy = 0.0\nsamples = 2\nvalue = [2, 0]"] ;
158 -> 170 ;
171 [label="entropy = 0.0\nsamples = 1\nvalue = [0, 1]"] ;
157 -> 171 ;
172 [label="X[1] <= 1.3843\nentropy = 0.4931\nsamples = 297\nvalue = [265, 32]"] ;
114 -> 172 ;
173 [label="X[1] <= 1.1978\nentropy = 0.5298\nsamples = 258\nvalue = [227, 31]"] ;
172 -> 173 ;
174 [label="X[0] <= 1.5\nentropy = 0.3755\nsamples = 124\nvalue = [115, 9]"] ;
173 -> 174 ;
175 [label="X[1] <= 1.181\nentropy = 0.4248\nsamples = 104\nvalue = [95, 9]"] ;
174 -> 175 ;
176 [label="X[0] <= 1.2333\nentropy = 0.6913\nsamples = 27\nvalue = [22, 5]"] ;
175 -> 176 ;
177 [label="entropy = 0.0\nsamples = 4\nvalue = [4, 0]"] ;
176 -> 177 ;
178 [label="X[0] <= 1.3667\nentropy = 0.7554\nsamples = 23\nvalue = [18, 5]"] ;
176 -> 178 ;
179 [label="X[1] <= 1.1783\nentropy = 0.9457\nsamples = 11\nvalue = [7, 4]"] ;
178 -> 179 ;
180 [label="X[1] <= 1.1753\nentropy = 0.65\nsamples = 6\nvalue = [5, 1]"] ;
179 -> 180 ;
181 [label="entropy = 0.0\nsamples = 1\nvalue = [0, 1]"] ;
180 -> 181 ;
182 [label="entropy = 0.0\nsamples = 5\nvalue = [5, 0]"] ;
180 -> 182 ;
183 [label="X[0] <= 1.3\nentropy = 0.971\nsamples = 5\nvalue = [2, 3]"] ;
179 -> 183 ;
184 [label="X[1] <= 1.1807\nentropy = 0.8113\nsamples = 4\nvalue = [1, 3]"] ;
183 -> 184 ;
185 [label="entropy = 0.0\nsamples = 2\nvalue = [0, 2]"] ;
184 -> 185 ;
186 [label="entropy = 1.0\nsamples = 2\nvalue = [1, 1]"] ;
184 -> 186 ;
187 [label="entropy = 0.0\nsamples = 1\nvalue = [1, 0]"] ;
183 -> 187 ;
188 [label="X[1] <= 1.1807\nentropy = 0.4138\nsamples = 12\nvalue = [11, 1]"] ;
178 -> 188 ;
189 [label="entropy = 0.0\nsamples = 6\nvalue = [6, 0]"] ;
188 -> 189 ;
190 [label="X[0] <= 1.4333\nentropy = 0.65\nsamples = 6\nvalue = [5, 1]"] ;
188 -> 190 ;
191 [label="entropy = 0.7219\nsamples = 5\nvalue = [4, 1]"] ;
190 -> 191 ;
192 [label="entropy = 0.0\nsamples = 1\nvalue = [1, 0]"] ;
190 -> 192 ;
193 [label="X[1] <= 1.1946\nentropy = 0.2946\nsamples = 77\nvalue = [73, 4]"] ;
175 -> 193 ;
194 [label="entropy = 0.0\nsamples = 38\nvalue = [38, 0]"] ;
193 -> 194 ;
195 [label="X[1] <= 1.1968\nentropy = 0.4771\nsamples = 39\nvalue = [35, 4]"] ;
193 -> 195 ;
196 [label="X[0] <= 1.4333\nentropy = 0.7793\nsamples = 13\nvalue = [10, 3]"] ;
195 -> 196 ;
197 [label="X[1] <= 1.1949\nentropy = 0.65\nsamples = 12\nvalue = [10, 2]"] ;
196 -> 197 ;
198 [label="X[0] <= 1.2333\nentropy = 0.9183\nsamples = 6\nvalue = [4, 2]"] ;
197 -> 198 ;
199 [label="entropy = 0.0\nsamples = 1\nvalue = [1, 0]"] ;
198 -> 199 ;
200 [label="X[0] <= 1.3667\nentropy = 0.971\nsamples = 5\nvalue = [3, 2]"] ;
198 -> 200 ;
201 [label="X[0] <= 1.3\nentropy = 1.0\nsamples = 4\nvalue = [2, 2]"] ;
200 -> 201 ;
202 [label="entropy = 0.9183\nsamples = 3\nvalue = [2, 1]"] ;
201 -> 202 ;
203 [label="entropy = 0.0\nsamples = 1\nvalue = [0, 1]"] ;
201 -> 203 ;
204 [label="entropy = 0.0\nsamples = 1\nvalue = [1, 0]"] ;
200 -> 204 ;
205 [label="entropy = 0.0\nsamples = 6\nvalue = [6, 0]"] ;
197 -> 205 ;
206 [label="entropy = 0.0\nsamples = 1\nvalue = [0, 1]"] ;
196 -> 206 ;
207 [label="X[0] <= 1.3667\nentropy = 0.2352\nsamples = 26\nvalue = [25, 1]"] ;
195 -> 207 ;
208 [label="entropy = 0.0\nsamples = 8\nvalue = [8, 0]"] ;
207 -> 208 ;
209 [label="X[0] <= 1.4333\nentropy = 0.3095\nsamples = 18\nvalue = [17, 1]"] ;
207 -> 209 ;
210 [label="entropy = 0.3712\nsamples = 14\nvalue = [13, 1]"] ;
209 -> 210 ;
211 [label="entropy = 0.0\nsamples = 4\nvalue = [4, 0]"] ;
209 -> 211 ;
212 [label="entropy = 0.0\nsamples = 20\nvalue = [20, 0]"] ;
174 -> 212 ;
213 [label="X[1] <= 1.3793\nentropy = 0.6442\nsamples = 134\nvalue = [112, 22]"] ;
173 -> 213 ;
214 [label="X[1] <= 1.3375\nentropy = 0.6292\nsamples = 133\nvalue = [112, 21]"] ;
213 -> 214 ;
215 [label="X[0] <= 1.4333\nentropy = 0.6658\nsamples = 121\nvalue = [100, 21]"] ;
214 -> 215 ;
216 [label="X[1] <= 1.2034\nentropy = 0.5033\nsamples = 63\nvalue = [56, 7]"] ;
215 -> 216 ;
217 [label="X[0] <= 1.2333\nentropy = 0.7219\nsamples = 25\nvalue = [20, 5]"] ;
216 -> 217 ;
218 [label="entropy = 0.8113\nsamples = 4\nvalue = [1, 3]"] ;
217 -> 218 ;
219 [label="X[1] <= 1.202\nentropy = 0.4537\nsamples = 21\nvalue = [19, 2]"] ;
217 -> 219 ;
220 [label="X[1] <= 1.1997\nentropy = 0.2864\nsamples = 20\nvalue = [19, 1]"] ;
219 -> 220 ;
221 [label="X[0] <= 1.3333\nentropy = 0.7219\nsamples = 5\nvalue = [4, 1]"] ;
220 -> 221 ;
222 [label="entropy = 0.8113\nsamples = 4\nvalue = [3, 1]"] ;
221 -> 222 ;
223 [label="entropy = 0.0\nsamples = 1\nvalue = [1, 0]"] ;
221 -> 223 ;
224 [label="entropy = 0.0\nsamples = 15\nvalue = [15, 0]"] ;
220 -> 224 ;
225 [label="entropy = 0.0\nsamples = 1\nvalue = [0, 1]"] ;
219 -> 225 ;
226 [label="X[0] <= 1.2333\nentropy = 0.2975\nsamples = 38\nvalue = [36, 2]"] ;
216 -> 226 ;
227 [label="entropy = 0.0\nsamples = 11\nvalue = [11, 0]"] ;
226 -> 227 ;
228 [label="X[1] <= 1.2187\nentropy = 0.3809\nsamples = 27\nvalue = [25, 2]"] ;
226 -> 228 ;
229 [label="entropy = 0.0\nsamples = 6\nvalue = [6, 0]"] ;
228 -> 229 ;
230 [label="X[1] <= 1.2229\nentropy = 0.4537\nsamples = 21\nvalue = [19, 2]"] ;
228 -> 230 ;
231 [label="entropy = 0.0\nsamples = 1\nvalue = [0, 1]"] ;
230 -> 231 ;
232 [label="X[0] <= 1.3\nentropy = 0.2864\nsamples = 20\nvalue = [19, 1]"] ;
230 -> 232 ;
233 [label="X[1] <= 1.2897\nentropy = 0.4395\nsamples = 11\nvalue = [10, 1]"] ;
232 -> 233 ;
234 [label="entropy = 0.0\nsamples = 6\nvalue = [6, 0]"] ;
233 -> 234 ;
235 [label="entropy = 0.7219\nsamples = 5\nvalue = [4, 1]"] ;
233 -> 235 ;
236 [label="entropy = 0.0\nsamples = 9\nvalue = [9, 0]"] ;
232 -> 236 ;
237 [label="X[1] <= 1.325\nentropy = 0.7973\nsamples = 58\nvalue = [44, 14]"] ;
215 -> 237 ;
238 [label="X[1] <= 1.2521\nentropy = 0.65\nsamples = 36\nvalue = [30, 6]"] ;
237 -> 238 ;
239 [label="X[1] <= 1.1989\nentropy = 0.7642\nsamples = 27\nvalue = [21, 6]"] ;
238 -> 239 ;
240 [label="X[0] <= 1.5\nentropy = 1.0\nsamples = 4\nvalue = [2, 2]"] ;
239 -> 240 ;
241 [label="entropy = 1.0\nsamples = 2\nvalue = [1, 1]"] ;
240 -> 241 ;
242 [label="entropy = 1.0\nsamples = 2\nvalue = [1, 1]"] ;
240 -> 242 ;
243 [label="X[1] <= 1.2187\nentropy = 0.6666\nsamples = 23\nvalue = [19, 4]"] ;
239 -> 243 ;
244 [label="X[0] <= 1.7\nentropy = 0.4855\nsamples = 19\nvalue = [17, 2]"] ;
243 -> 244 ;
245 [label="X[0] <= 1.6333\nentropy = 0.5665\nsamples = 15\nvalue = [13, 2]"] ;
244 -> 245 ;
246 [label="X[0] <= 1.5\nentropy = 0.3712\nsamples = 14\nvalue = [13, 1]"] ;
245 -> 246 ;
247 [label="X[1] <= 1.2088\nentropy = 0.5436\nsamples = 8\nvalue = [7, 1]"] ;
246 -> 247 ;
248 [label="entropy = 0.65\nsamples = 6\nvalue = [5, 1]"] ;
247 -> 248 ;
249 [label="entropy = 0.0\nsamples = 2\nvalue = [2, 0]"] ;
247 -> 249 ;
250 [label="entropy = 0.0\nsamples = 6\nvalue = [6, 0]"] ;
246 -> 250 ;
251 [label="entropy = 0.0\nsamples = 1\nvalue = [0, 1]"] ;
245 -> 251 ;
252 [label="entropy = 0.0\nsamples = 4\nvalue = [4, 0]"] ;
244 -> 252 ;
253 [label="X[1] <= 1.2229\nentropy = 1.0\nsamples = 4\nvalue = [2, 2]"] ;
243 -> 253 ;
254 [label="entropy = 0.0\nsamples = 1\nvalue = [0, 1]"] ;
253 -> 254 ;
255 [label="X[1] <= 1.2313\nentropy = 0.9183\nsamples = 3\nvalue = [2, 1]"] ;
253 -> 255 ;
256 [label="entropy = 0.0\nsamples = 1\nvalue = [1, 0]"] ;
255 -> 256 ;
257 [label="entropy = 1.0\nsamples = 2\nvalue = [1, 1]"] ;
255 -> 257 ;
258 [label="entropy = 0.0\nsamples = 9\nvalue = [9, 0]"] ;
238 -> 258 ;
259 [label="X[0] <= 1.9\nentropy = 0.9457\nsamples = 22\nvalue = [14, 8]"] ;
237 -> 259 ;
260 [label="X[0] <= 1.7\nentropy = 0.971\nsamples = 20\nvalue = [12, 8]"] ;
259 -> 260 ;
261 [label="X[0] <= 1.6333\nentropy = 0.9957\nsamples = 13\nvalue = [7, 6]"] ;
260 -> 261 ;
262 [label="X[0] <= 1.5667\nentropy = 1.0\nsamples = 8\nvalue = [4, 4]"] ;
261 -> 262 ;
263 [label="X[0] <= 1.5\nentropy = 0.9852\nsamples = 7\nvalue = [4, 3]"] ;
262 -> 263 ;
264 [label="entropy = 1.0\nsamples = 2\nvalue = [1, 1]"] ;
263 -> 264 ;
265 [label="entropy = 0.971\nsamples = 5\nvalue = [3, 2]"] ;
263 -> 265 ;
266 [label="entropy = 0.0\nsamples = 1\nvalue = [0, 1]"] ;
262 -> 266 ;
267 [label="entropy = 0.971\nsamples = 5\nvalue = [3, 2]"] ;
261 -> 267 ;
268 [label="X[0] <= 1.8\nentropy = 0.8631\nsamples = 7\nvalue = [5, 2]"] ;
260 -> 268 ;
269 [label="entropy = 0.7219\nsamples = 5\nvalue = [4, 1]"] ;
268 -> 269 ;
270 [label="entropy = 1.0\nsamples = 2\nvalue = [1, 1]"] ;
268 -> 270 ;
271 [label="entropy = 0.0\nsamples = 2\nvalue = [2, 0]"] ;
259 -> 271 ;
272 [label="entropy = 0.0\nsamples = 12\nvalue = [12, 0]"] ;
214 -> 272 ;
273 [label="entropy = 0.0\nsamples = 1\nvalue = [0, 1]"] ;
213 -> 273 ;
274 [label="X[1] <= 1.9961\nentropy = 0.172\nsamples = 39\nvalue = [38, 1]"] ;
172 -> 274 ;
275 [label="entropy = 0.0\nsamples = 33\nvalue = [33, 0]"] ;
274 -> 275 ;
276 [label="X[0] <= 1.4333\nentropy = 0.65\nsamples = 6\nvalue = [5, 1]"] ;
274 -> 276 ;
277 [label="entropy = 0.0\nsamples = 5\nvalue = [5, 0]"] ;
276 -> 277 ;
278 [label="entropy = 0.0\nsamples = 1\nvalue = [0, 1]"] ;
276 -> 278 ;
}